<?xml version="1.0"?>
<opencv_storage>
<cascade>
  <stageType>BOOST</stageType>
  <featureType>HAAR</featureType>
  <height>20</height>
  <width>20</width>
  <stageParams>
    <boostType>GAB</boostType>
    <minHitRate>9.9500000476837158e-01</minHitRate>
    <maxFalseAlarm>1.5000000596046448e-01</maxFalseAlarm>
    <weightTrimRate>9.4999999999999996e-01</weightTrimRate>
    <maxDepth>1</maxDepth>
    <maxWeakCount>100</maxWeakCount></stageParams>
  <featureParams>
    <maxCatCount>0</maxCatCount>
    <featSize>1</featSize>
    <mode>ALL</mode></featureParams>
  <stageNum>2</stageNum>
  <stages>
    <!-- stage 0 -->
    <_>
      <maxWeakCount>3</maxWeakCount>
      <stageThreshold>-8.9394295215606689e-01</stageThreshold>
      <weakClassifiers>
        <_>
          <internalNodes>
            0 -1 2 -3.9410619065165520e-03</internalNodes>
          <leafValues>
            9.1025638580322266e-01 -9.3209874629974365e-01</leafValues></_>
        <_>
          <internalNodes>
            0 -1 0 5.3273569792509079e-02</internalNodes>
          <leafValues>
            8.5739201307296753e-01 -8.6969363689422607e-01</leafValues></_>
        <_>
          <internalNodes>
            0 -1 3 6.0351014137268066e-02</internalNodes>
          <leafValues>
            9.0784943103790283e-01 -8.1862568855285645e-01</leafValues></_></weakClassifiers></_>
    <!-- stage 1 -->
    <_>
      <maxWeakCount>4</maxWeakCount>
      <stageThreshold>-7.5162120163440704e-02</stageThreshold>
      <weakClassifiers>
        <_>
          <internalNodes>
            0 -1 4 2.7407534420490265e-02</internalNodes>
          <leafValues>
            1. -8.0281692743301392e-01</leafValues></_>
        <_>
          <internalNodes>
            0 -1 1 9.5071401447057724e-03</internalNodes>
          <leafValues>
            8.9750683307647705e-01 -7.8857475519180298e-01</leafValues></_>
        <_>
          <internalNodes>
            0 -1 6 -8.9140115305781364e-03</internalNodes>
          <leafValues>
            -8.3622628450393677e-01 7.4910634756088257e-01</leafValues></_>
        <_>
          <internalNodes>
            0 -1 5 8.8672954589128494e-03</internalNodes>
          <leafValues>
            7.7195864915847778e-01 -9.1895842552185059e-01</leafValues></_></weakClassifiers></_></stages>
  <features>
    <_>
      <rects>
        <_>
          0 4 20 11 -1.</_>
        <_>
          5 4 10 11 2.</_></rects>
      <tilted>0</tilted></_>
    <_>
      <rects>
        <_>
          0 5 14 8 -1.</_>
        <_>
          7 5 7 8 2.</_></rects>
      <tilted>0</tilted></_>
    <_>
      <rects>
        <_>
          1 1 18 18 -1.</_>
        <_>
          7 7 6 6 9.</_></rects>
      <tilted>0</tilted></_>
    <_>
      <rects>
        <_>
          3 0 12 20 -1.</_>
        <_>
          3 5 12 10 2.</_></rects>
      <tilted>0</tilted></_>
    <_>
      <rects>
        <_>
          4 0 11 20 -1.</_>
        <_>
          4 5 11 10 2.</_></rects>
      <tilted>0</tilted></_>
    <_>
      <rects>
        <_>
          12 7 1 12 -1.</_>
        <_>
          12 7 1 6 2.</_></rects>
      <tilted>1</tilted></_>
    <_>
      <rects>
        <_>
          19 0 1 10 -1.</_>
        <_>
          19 0 1 5 2.</_></rects>
      <tilted>1</tilted></_></features></cascade>
</opencv_storage>
