<?xml version="1.0"?>
<opencv_storage>
<cascade>
  <stageType>BOOST</stageType>
  <featureType>HAAR</featureType>
  <height>20</height>
  <width>20</width>
  <stageParams>
    <boostType>GAB</boostType>
    <minHitRate>9.9500000476837158e-01</minHitRate>
    <maxFalseAlarm>1.5000000596046448e-01</maxFalseAlarm>
    <weightTrimRate>9.4999999999999996e-01</weightTrimRate>
    <maxDepth>1</maxDepth>
    <maxWeakCount>100</maxWeakCount></stageParams>
  <featureParams>
    <maxCatCount>0</maxCatCount>
    <featSize>1</featSize>
    <mode>ALL</mode></featureParams>
  <stageNum>2</stageNum>
  <stages>
    <!-- stage 0 -->
    <_>
      <maxWeakCount>6</maxWeakCount>
      <stageThreshold>-7.2056865692138672e-01</stageThreshold>
      <weakClassifiers>
        <_>
          <internalNodes>
            0 -1 2 5.3451336920261383e-02</internalNodes>
          <leafValues>
            -8.8850176334381104e-01 4.9222797155380249e-01</leafValues></_>
        <_>
          <internalNodes>
            0 -1 6 2.0999485626816750e-02</internalNodes>
          <leafValues>
            4.6626102924346924e-01 -6.7874240875244141e-01</leafValues></_>
        <_>
          <internalNodes>
            0 -1 3 2.5091055780649185e-02</internalNodes>
          <leafValues>
            6.2728190422058105e-01 -5.5762821435928345e-01</leafValues></_>
        <_>
          <internalNodes>
            0 -1 8 1.9547350704669952e-02</internalNodes>
          <leafValues>
            -9.1590273380279541e-01 3.8270631432533264e-01</leafValues></_>
        <_>
          <internalNodes>
            0 -1 0 2.5280198082327843e-02</internalNodes>
          <leafValues>
            5.1191568374633789e-01 -6.4410430192947388e-01</leafValues></_>
        <_>
          <internalNodes>
            0 -1 11 -1.6108158975839615e-02</internalNodes>
          <leafValues>
            -6.2471055984497070e-01 6.2338066101074219e-01</leafValues></_></weakClassifiers></_>
    <!-- stage 1 -->
    <_>
      <maxWeakCount>6</maxWeakCount>
      <stageThreshold>-6.0131442546844482e-01</stageThreshold>
      <weakClassifiers>
        <_>
          <internalNodes>
            0 -1 4 9.1042350977659225e-03</internalNodes>
          <leafValues>
            -5.6862747669219971e-01 1.</leafValues></_>
        <_>
          <internalNodes>
            0 -1 9 9.2445611953735352e-03</internalNodes>
          <leafValues>
            -6.5090584754943848e-01 5.7302957773208618e-01</leafValues></_>
        <_>
          <internalNodes>
            0 -1 5 2.5430463254451752e-02</internalNodes>
          <leafValues>
            5.7349282503128052e-01 -6.0964465141296387e-01</leafValues></_>
        <_>
          <internalNodes>
            0 -1 10 4.4518355280160904e-03</internalNodes>
          <leafValues>
            -6.7964726686477661e-01 6.2360161542892456e-01</leafValues></_>
        <_>
          <internalNodes>
            0 -1 7 3.4688655287027359e-02</internalNodes>
          <leafValues>
            4.0914291143417358e-01 -8.1727409362792969e-01</leafValues></_>
        <_>
          <internalNodes>
            0 -1 1 -2.3374784737825394e-02</internalNodes>
          <leafValues>
            -9.0870499610900879e-01 3.9896500110626221e-01</leafValues></_></weakClassifiers></_></stages>
  <features>
    <_>
      <rects>
        <_>
          0 1 4 15 -1.</_>
        <_>
          1 1 2 15 2.</_></rects>
      <tilted>0</tilted></_>
    <_>
      <rects>
        <_>
          0 3 20 12 -1.</_>
        <_>
          0 6 20 6 2.</_></rects>
      <tilted>0</tilted></_>
    <_>
      <rects>
        <_>
          2 5 15 9 -1.</_>
        <_>
          7 8 5 3 9.</_></rects>
      <tilted>0</tilted></_>
    <_>
      <rects>
        <_>
          2 12 14 8 -1.</_>
        <_>
          2 14 14 4 2.</_></rects>
      <tilted>0</tilted></_>
    <_>
      <rects>
        <_>
          3 5 11 2 -1.</_>
        <_>
          3 5 11 1 2.</_></rects>
      <tilted>1</tilted></_>
    <_>
      <rects>
        <_>
          4 0 11 3 -1.</_>
        <_>
          4 1 11 1 3.</_></rects>
      <tilted>0</tilted></_>
    <_>
      <rects>
        <_>
          4 0 15 4 -1.</_>
        <_>
          4 1 15 2 2.</_></rects>
      <tilted>0</tilted></_>
    <_>
      <rects>
        <_>
          5 0 3 5 -1.</_>
        <_>
          6 1 1 5 3.</_></rects>
      <tilted>1</tilted></_>
    <_>
      <rects>
        <_>
          5 0 8 20 -1.</_>
        <_>
          5 5 8 10 2.</_></rects>
      <tilted>0</tilted></_>
    <_>
      <rects>
        <_>
          9 2 4 16 -1.</_>
        <_>
          9 6 4 8 2.</_></rects>
      <tilted>0</tilted></_>
    <_>
      <rects>
        <_>
          12 1 6 8 -1.</_>
        <_>
          10 3 6 4 2.</_></rects>
      <tilted>1</tilted></_>
    <_>
      <rects>
        <_>
          18 3 2 14 -1.</_>
        <_>
          19 3 1 14 2.</_></rects>
      <tilted>0</tilted></_></features></cascade>
</opencv_storage>
